<?xml version="1.0"?>
<opencv_storage>
<stage0>
  <maxWeakCount>14</maxWeakCount>
  <stageThreshold>-1.3929439783096313e+00</stageThreshold>
  <weakClassifiers>
    <_>
      <internalNodes>
        0 -1 52100 7.3309610597789288e-03</internalNodes>
      <leafValues>
        -6.0239523649215698e-01 7.3061221837997437e-01</leafValues></_>
    <_>
      <internalNodes>
        0 -1 37538 8.0599263310432434e-03</internalNodes>
      <leafValues>
        -4.5168671011924744e-01 5.2327787876129150e-01</leafValues></_>
    <_>
      <internalNodes>
        0 -1 29982 1.6063652932643890e-02</internalNodes>
      <leafValues>
        -2.6958593726158142e-01 5.3716897964477539e-01</leafValues></_>
    <_>
      <internalNodes>
        0 -1 67853 5.7290969416499138e-03</internalNodes>
      <leafValues>
        -3.0529490113258362e-01 3.7789443135261536e-01</leafValues></_>
    <_>
      <internalNodes>
        0 -1 33517 5.5472189560532570e-03</internalNodes>
      <leafValues>
        -2.0937103033065796e-01 5.2052563428878784e-01</leafValues></_>
    <_>
      <internalNodes>
        0 -1 47826 1.9718835130333900e-02</internalNodes>
      <leafValues>
        -3.6558043956756592e-01 3.0393633246421814e-01</leafValues></_>
    <_>
      <internalNodes>
        0 -1 1064 -1.0788265615701675e-02</internalNodes>
      <leafValues>
        4.1914686560630798e-01 -2.8371608257293701e-01</leafValues></_>
    <_>
      <internalNodes>
        0 -1 19627 -8.4436993347480893e-04</internalNodes>
      <leafValues>
        4.1283482313156128e-01 -1.8251392245292664e-01</leafValues></_>
    <_>
      <internalNodes>
        0 -1 27469 -7.9463474685326219e-04</internalNodes>
      <leafValues>
        3.9945870637893677e-01 -1.9298635423183441e-01</leafValues></_>
    <_>
      <internalNodes>
        0 -1 64708 -1.2478003045544028e-03</internalNodes>
      <leafValues>
        2.8496927022933960e-01 -2.7276134490966797e-01</leafValues></_>
    <_>
      <internalNodes>
        0 -1 49841 3.5745459608733654e-03</internalNodes>
      <leafValues>
        -2.2560603916645050e-01 3.3022338151931763e-01</leafValues></_>
    <_>
      <internalNodes>
        0 -1 10895 8.6381509900093079e-03</internalNodes>
      <leafValues>
        -2.3833644390106201e-01 3.4182256460189819e-01</leafValues></_>
    <_>
      <internalNodes>
        0 -1 68234 1.4203675091266632e-03</internalNodes>
      <leafValues>
        -2.5921839475631714e-01 3.0627787113189697e-01</leafValues></_>
    <_>
      <internalNodes>
        0 -1 66463 -4.3949639075435698e-04</internalNodes>
      <leafValues>
        2.7165597677230835e-01 -2.7680855989456177e-01</leafValues></_></weakClassifiers></stage0>
</opencv_storage>
