<?xml version="1.0"?>
<opencv_storage>
<stage4>
  <maxWeakCount>33</maxWeakCount>
  <stageThreshold>-9.0119361877441406e-01</stageThreshold>
  <weakClassifiers>
    <_>
      <internalNodes>
        0 -1 51742 7.6169311068952084e-03</internalNodes>
      <leafValues>
        -2.3076923191547394e-01 5.6028366088867188e-01</leafValues></_>
    <_>
      <internalNodes>
        0 -1 52781 -2.5063067674636841e-02</internalNodes>
      <leafValues>
        3.1249001622200012e-01 -3.1341636180877686e-01</leafValues></_>
    <_>
      <internalNodes>
        0 -1 8250 1.2084324844181538e-02</internalNodes>
      <leafValues>
        -1.6742251813411713e-01 4.1811820864677429e-01</leafValues></_>
    <_>
      <internalNodes>
        0 -1 3051 -6.3160327263176441e-03</internalNodes>
      <leafValues>
        2.3196360468864441e-01 -2.6723840832710266e-01</leafValues></_>
    <_>
      <internalNodes>
        0 -1 42690 -6.4854598604142666e-03</internalNodes>
      <leafValues>
        1.8237188458442688e-01 -2.9078987240791321e-01</leafValues></_>
    <_>
      <internalNodes>
        0 -1 67991 4.2933863587677479e-03</internalNodes>
      <leafValues>
        -1.9240584969520569e-01 2.8958272933959961e-01</leafValues></_>
    <_>
      <internalNodes>
        0 -1 10206 1.6966979950666428e-02</internalNodes>
      <leafValues>
        -1.2414048612117767e-01 3.9876604080200195e-01</leafValues></_>
    <_>
      <internalNodes>
        0 -1 995 3.6974228918552399e-02</internalNodes>
      <leafValues>
        -1.2268419563770294e-01 4.1590794920921326e-01</leafValues></_>
    <_>
      <internalNodes>
        0 -1 20584 -1.2488115578889847e-02</internalNodes>
      <leafValues>
        -3.8917499780654907e-01 1.2188573181629181e-01</leafValues></_>
    <_>
      <internalNodes>
        0 -1 43265 1.7045430140569806e-03</internalNodes>
      <leafValues>
        -2.8539183735847473e-01 1.4618885517120361e-01</leafValues></_>
    <_>
      <internalNodes>
        0 -1 58921 -2.4514572694897652e-02</internalNodes>
      <leafValues>
        2.8218945860862732e-01 -1.5529258549213409e-01</leafValues></_>
    <_>
      <internalNodes>
        0 -1 38939 -1.2177149765193462e-03</internalNodes>
      <leafValues>
        2.8490671515464783e-01 -1.5188920497894287e-01</leafValues></_>
    <_>
      <internalNodes>
        0 -1 32994 -3.9427708834409714e-03</internalNodes>
      <leafValues>
        2.7863410115242004e-01 -1.5041229128837585e-01</leafValues></_>
    <_>
      <internalNodes>
        0 -1 64147 -9.8502356559038162e-04</internalNodes>
      <leafValues>
        2.4603007733821869e-01 -1.6658231616020203e-01</leafValues></_>
    <_>
      <internalNodes>
        0 -1 39153 -8.6785398889333010e-04</internalNodes>
      <leafValues>
        2.5956299901008606e-01 -1.6765071451663971e-01</leafValues></_>
    <_>
      <internalNodes>
        0 -1 71141 -1.8242178484797478e-03</internalNodes>
      <leafValues>
        4.2106500267982483e-01 -9.4515427947044373e-02</leafValues></_>
    <_>
      <internalNodes>
        0 -1 52937 1.1413820087909698e-02</internalNodes>
      <leafValues>
        5.2439153194427490e-02 -7.7533400058746338e-01</leafValues></_>
    <_>
      <internalNodes>
        0 -1 57787 -3.2411366701126099e-03</internalNodes>
      <leafValues>
        -6.9189852476119995e-01 4.5527499169111252e-02</leafValues></_>
    <_>
      <internalNodes>
        0 -1 57035 7.0883440785109997e-03</internalNodes>
      <leafValues>
        5.3470999002456665e-02 -6.2344354391098022e-01</leafValues></_>
    <_>
      <internalNodes>
        0 -1 62074 2.7059945277869701e-03</internalNodes>
      <leafValues>
        -1.7810343205928802e-01 2.1337884664535522e-01</leafValues></_>
    <_>
      <internalNodes>
        0 -1 56371 2.2807426750659943e-02</internalNodes>
      <leafValues>
        4.0113840252161026e-02 -8.9298284053802490e-01</leafValues></_>
    <_>
      <internalNodes>
        0 -1 77425 -2.6085067074745893e-03</internalNodes>
      <leafValues>
        2.3156866431236267e-01 -1.7495717108249664e-01</leafValues></_>
    <_>
      <internalNodes>
        0 -1 77172 4.3901614844799042e-03</internalNodes>
      <leafValues>
        -9.8494783043861389e-02 3.5031834244728088e-01</leafValues></_>
    <_>
      <internalNodes>
        0 -1 3381 8.4421979263424873e-03</internalNodes>
      <leafValues>
        -1.7974083125591278e-01 2.3095776140689850e-01</leafValues></_>
    <_>
      <internalNodes>
        0 -1 18787 -3.4385789185762405e-03</internalNodes>
      <leafValues>
        -5.4085427522659302e-01 7.9387575387954712e-02</leafValues></_>
    <_>
      <internalNodes>
        0 -1 33201 -1.0471047833561897e-02</internalNodes>
      <leafValues>
        -8.4451895952224731e-01 3.6136638373136520e-02</leafValues></_>
    <_>
      <internalNodes>
        0 -1 69979 9.2036249116063118e-03</internalNodes>
      <leafValues>
        -8.4661416709423065e-02 5.5176454782485962e-01</leafValues></_>
    <_>
      <internalNodes>
        0 -1 72399 7.4769360944628716e-03</internalNodes>
      <leafValues>
        -1.0678992420434952e-01 3.8767951726913452e-01</leafValues></_>
    <_>
      <internalNodes>
        0 -1 56097 -2.1046148613095284e-03</internalNodes>
      <leafValues>
        3.2933437824249268e-01 -1.0723307728767395e-01</leafValues></_>
    <_>
      <internalNodes>
        0 -1 59035 -9.2673134058713913e-03</internalNodes>
      <leafValues>
        2.7523818612098694e-01 -1.7373378574848175e-01</leafValues></_>
    <_>
      <internalNodes>
        0 -1 56046 -6.2547530978918076e-03</internalNodes>
      <leafValues>
        -8.1348621845245361e-01 4.6011365950107574e-02</leafValues></_>
    <_>
      <internalNodes>
        0 -1 44677 -3.0709754209965467e-03</internalNodes>
      <leafValues>
        3.0045160651206970e-01 -1.2548881769180298e-01</leafValues></_>
    <_>
      <internalNodes>
        0 -1 47920 4.6532796695828438e-03</internalNodes>
      <leafValues>
        5.8281149715185165e-02 -6.4502650499343872e-01</leafValues></_></weakClassifiers></stage4>
</opencv_storage>
